<?xml version="1.0" encoding="UTF-8"?>
<!-- This network was created in GeNIe Academic, which can be used for academic teaching and research purposes only -->
<smile version="1.0" id="Network3" numsamples="10000" discsamples="10000">
	<nodes>
		<cpt id="Information_Facilities_">
			<state id="High" />
			<state id="Medium" />
			<state id="Low" />
			<probabilities>0.2553191489361702 0.2382978723404255 0.5063829787234042</probabilities>
		</cpt>
		<cpt id="Perceived_Viability">
			<state id="High" />
			<state id="Medium" />
			<state id="Low" />
			<probabilities>0.24 0.27 0.49</probabilities>
		</cpt>
		<cpt id="Environment_Norm">
			<state id="High" />
			<state id="Medium" />
			<state id="Low" />
			<probabilities>0.21 0.41 0.38</probabilities>
		</cpt>
		<cpt id="PV">
			<state id="High" />
			<state id="Medium" />
			<state id="Low" />
			<parents>Perceived_Viability Environment_Norm Information_Facilities_</parents>
			<probabilities>0.4 0.2 0.4 0.608891904527027 0.270732186210225 0.120375909262749 0.582922963298999 0.281315593173712 0.135761443527289 0.2 0.4 0.4 0.556255973193285 0.291249254262508 0.152494772544208 0.3 0.2 0.5 0.2 0.2 0.6 0.3 0.2 0.5 0.480497803715692 0.314132915289857 0.205369280994451 0.3 0.3 0.4 0.572509958045435 0.285307982513057 0.142182059441507 0.3 0.2 0.5 0.2 0.3 0.5 0.517805807826357 0.303870289178255 0.178323902995389 0.3 0.2 0.5 0.3 0.3 0.4 0.469292342851725 0.316820840785457 0.213886816362819 0.3 0.2 0.5 0.3 0.3 0.4 0.540102811253875 0.29679912688637 0.163098061859754 0.3 0.3 0.4 0.2 0.4 0.4 0.48406078054643 0.313239500049514 0.202699719404056 0.4554420923151 0.31988416540077 0.224673742284129 0.2 0.3 0.5 0.435044898383809 0.323861749576839 0.241093352039351 0.3 0.2 0.5</probabilities>
		</cpt>
		<cpt id="EV">
			<state id="High" />
			<state id="Medium" />
			<state id="Low" />
			<parents>Information_Facilities_ Perceived_Viability Environment_Norm</parents>
			<probabilities>0.1 0.1 0.8 0.1 0.1 0.8 0.1 0.1 0.8 0.1 0.1 0.8 0.1 0.1 0.8 0.1 0.1 0.8 0.1 0.1 0.8 0.1 0.1 0.8 0.1 0.1 0.8 0.2 0.1 0.7 0.2 0.1 0.7 0.2 0.1 0.7 0.516939272128778 0.304131122757535 0.178929605113687 0.516939272128778 0.304131122757535 0.178929605113687 0.516939272128778 0.304131122757535 0.178929605113687 0.4729875758230805 0.3159549795419083 0.2110574446350112 0.4729875758230805 0.3159549795419083 0.2110574446350112 0.4729875758230805 0.3159549795419083 0.2110574446350112 0.1 0.1 0.8 0.1 0.1 0.8 0.1 0.1 0.8 0.450491766895394 0.320908529575757 0.228599703528849 0.450491766895394 0.320908529575757 0.228599703528849 0.450491766895394 0.320908529575757 0.228599703528849 0.1 0.1 0.8 0.1 0.1 0.8 0.1 0.1 0.8</probabilities>
		</cpt>
		<cpt id="Electrictiy_demand">
			<state id="High" />
			<state id="Medium" />
			<state id="Low" />
			<parents>PV EV</parents>
			<probabilities>0.3967845970234006 0.3295339129015366 0.2736814900750627 0.3967845970234006 0.3295339129015366 0.2736814900750627 0.3967845970234006 0.3295339129015366 0.2736814900750627 0.4941439751749761 0.310610963580719 0.195245061244305 0.4941439751749761 0.310610963580719 0.195245061244305 0.4941439751749761 0.310610963580719 0.195245061244305 0.271489323824938 0.60710405 0.121406626175062 0.271489323824938 0.60710405 0.121406626175062 0.271489323824938 0.60710405 0.121406626175062</probabilities>
		</cpt>
		<cpt id="Bike_users">
			<state id="High" />
			<state id="Medium" />
			<state id="Low" />
			<parents>Information_Facilities_ Environment_Norm</parents>
			<probabilities>0.5984233095654511 0.2751057369894551 0.126470953445094 0.5984233095654511 0.2751057369894551 0.126470953445094 0.5984233095654511 0.2751057369894551 0.126470953445094 0.1 0.1 0.8 0.1 0.1 0.8 0.1 0.1 0.8 0.3 0.2 0.5 0.3 0.2 0.5 0.3 0.2 0.5</probabilities>
		</cpt>
		<cpt id="Sustainable_Mobility">
			<state id="High" />
			<state id="Medium" />
			<state id="Low" />
			<parents>EV Bike_users</parents>
			<probabilities>0.17115832 0.58045317 0.2483885100000001 0.17115832 0.58045317 0.2483885100000001 0.118878736830284 0.300668093169716 0.58045317 0.174315386830284 0.300668093169716 0.52501652 0.118878736830284 0.300668093169716 0.58045317 0.118878736830284 0.300668093169716 0.58045317 0.52501652252917 0.30165905508111 0.17332442238972 0.174315386830284 0.300668093169716 0.52501652 0.118878736830284 0.300668093169716 0.58045317</probabilities>
		</cpt>
		<cpt id="Heat_Pump">
			<state id="High" />
			<state id="Medium" />
			<state id="Low" />
			<parents>Perceived_Viability Information_Facilities_ Environment_Norm</parents>
			<probabilities>0.1 0.1 0.8 0.1 0.1 0.8 0.1 0.1 0.8 0.5958431204769969 0.27616149325827 0.127995386264733 0.5958431204769969 0.27616149325827 0.127995386264733 0.5958431204769969 0.27616149325827 0.127995386264733 0.549848172255334 0.293493377411179 0.156658450333487 0.549848172255334 0.293493377411179 0.156658450333487 0.549848172255334 0.293493377411179 0.156658450333487 0.25 0.25 0.5 0.25 0.25 0.5 0.25 0.25 0.5 0.523354792752298 0.302175078505089 0.174470128742613 0.523354792752298 0.302175078505089 0.174470128742613 0.523354792752298 0.302175078505089 0.174470128742613 0.25 0.25 0.5 0.25 0.25 0.5 0.25 0.25 0.5 0.25 0.25 0.5 0.25 0.25 0.5 0.25 0.25 0.5 0.25 0.25 0.5 0.25 0.25 0.5 0.25 0.25 0.5 0.25 0.25 0.5 0.25 0.25 0.5 0.25 0.25 0.5</probabilities>
		</cpt>
		<cpt id="District_Heating">
			<state id="High" />
			<state id="Medium" />
			<state id="Low" />
			<parents>Environment_Norm</parents>
			<probabilities>0.25 0.25 0.5 0.25 0.25 0.5 0.25 0.25 0.5</probabilities>
		</cpt>
		<cpt id="Bio_Gas">
			<state id="High" />
			<state id="Medium" />
			<state id="Low" />
			<parents>Environment_Norm</parents>
			<probabilities>0.1 0.1 0.8 0.3 0.3 0.4 0.1 0.35 0.55</probabilities>
		</cpt>
		<cpt id="Sustainable_Heating">
			<state id="High" />
			<state id="Medium" />
			<state id="Low" />
			<parents>Heat_Pump District_Heating Bio_Gas</parents>
			<probabilities>0.3422494650501511 0.45528573 0.202464804949849 0.3422494650501511 0.45528573 0.202464804949849 0.3422494650501511 0.45528573 0.202464804949849 0.3422494650501511 0.45528573 0.202464804949849 0.3422494650501511 0.45528573 0.202464804949849 0.3422494650501511 0.45528573 0.202464804949849 0.3422494650501511 0.45528573 0.202464804949849 0.52786336324794 0.300766083161203 0.171370553590858 0.499311994017431 0.309206815755011 0.191481190227558 0.271489323824938 0.60710405 0.121406626175062 0.271489323824938 0.60710405 0.121406626175062 0.271489323824938 0.60710405 0.121406626175062 0.271489323824938 0.60710405 0.121406626175062 0.271489323824938 0.60710405 0.121406626175062 0.496677116013338 0.3099275056537 0.193395378332962 0.513744831336748 0.30508355906882 0.181171609594431 0.480139046441927 0.314221842852246 0.205639110705827 0.45102069429588 0.320800868445816 0.228178437258305 0.569104587402866 0.286582159689908 0.144313252907226 0.536790901845586 0.297892945230119 0.165316152924295 0.508404364285071 0.306643711189127 0.184951924525802 0.517912628928187 0.303838062307483 0.17824930876433 0.3422494650501511 0.45528573 0.202464804949849 0.45528573223344 0.31991709293063 0.22479717483593 0.472615142618104 0.31604316675885 0.211341690623046 0.438588780937676 0.32321707656608 0.238194142496245 0.3422494650501511 0.45528573 0.202464804949849</probabilities>
		</cpt>
		<cpt id="GHG_Emission">
			<state id="Low" />
			<state id="Medium" />
			<state id="High" />
			<parents>Electrictiy_demand Sustainable_Mobility Sustainable_Heating</parents>
			<probabilities>0.1158092473455831 0.37012378 0.5140669726544169 0.671812836271768 0.241426649544402 0.0867605141838298 0.01 0.08999999999999997 0.9 0.6673326015852 0.243683680355184 0.0889837180596159 0.62684532241882 0.26289671963775 0.11025795794343 0.01 0.08999999999999997 0.9 0.62868237865531 0.262071187995678 0.109246433349012 0.1158092473455831 0.37012378 0.5140669726544169 0.01 0.08999999999999997 0.9 0.65853290962431 0.248040841894387 0.093426248481303 0.617382074731588 0.267079407413788 0.115538517854624 0.01 0.08999999999999997 0.9 0.612444011564233 0.269215446152119 0.118340542283649 0.1158092473455831 0.37012378 0.5140669726544169 0.01 0.08999999999999997 0.9 0.1158092473455831 0.37012378 0.5140669726544169 0.523970051145389 0.301984468524648 0.174045480329963 0.483058828869486 0.313492616441434 0.203448554689079 0.1158092473455831 0.37012378 0.5140669726544169 0.566786373642278 0.287440658209405 0.145772968148317 0.527103993245901 0.301005377320628 0.171890629433471 0.2 0.4 0.4 0.2 0.3 0.5 0.473799073797171 0.315762115515329 0.210438810687501 0.516971941013791 0.304121308300548 0.178906750685661 0.469010499674116 0.316886047764467 0.214103452561418 0.42742109809066 0.325181371260487 0.247397530648853</probabilities>
		</cpt>
		<cpt id="Environment_Norm_2">
			<state id="High" />
			<state id="Medium" />
			<state id="Low" />
			<probabilities>0.42 0.39 0.19</probabilities>
		</cpt>
		<cpt id="Perceived_Viability_2">
			<state id="High" />
			<state id="Medium" />
			<state id="Low" />
			<probabilities>0.3333333333333333 0.3333333333333333 0.3333333333333333</probabilities>
		</cpt>
		<cpt id="Information_Facilities__2">
			<state id="High" />
			<state id="Medium" />
			<state id="Low" />
			<probabilities>0.333333 0.3333333 0.3333337</probabilities>
		</cpt>
		<cpt id="PV_2">
			<state id="High" />
			<state id="Medium" />
			<state id="Low" />
			<parents>Information_Facilities__2 Perceived_Viability_2 Environment_Norm_2</parents>
			<probabilities>0.740807620324881 0.203365021839021 0.0558273578360982 0.6970768556090819 0.228210866637765 0.07471227775315251 0.655445144995553 0.249545901803282 0.0950089532011648 0.692575758539645 0.230626215333587 0.0767980261267683 0.643156458895636 0.255412919471518 0.101430621632846 0.596971407860334 0.275700904680894 0.127327687458772 0.6462667663474581 0.253946521504607 0.09978671214793421 0.592342269514416 0.277579896897027 0.130077833588557 0.542898407405776 0.295864110818268 0.161237481775956 0.700495369226302 0.226358808149185 0.0731458226245128 0.65194208910538 0.251238383164031 0.0968195277305889 0.606423757702684 0.271776318656225 0.121799923641091 0.6469868899118 0.253605214827237 0.09940789526096371 0.5931249901690629 0.27726417708815 0.129610832742786 0.543723450135865 0.295586120522417 0.160690429341718 0.596484926250735 0.275899702037127 0.127615371712139 0.538823433478442 0.297223451715155 0.163953114806403 0.487088083878137 0.312465834579398 0.200446081542465 0.662375796336947 0.24615041223297 0.0914737914300829 0.609908555416253 0.27029977133351 0.119791673250237 0.561474417715733 0.289380565293946 0.149145016990321 0.6045998049229649 0.2725427819647 0.122857413112335 0.547467069445903 0.294313052583177 0.15821987797092 0.496020466991822 0.310105560256365 0.193873972751813 0.550999796919184 0.293094170068605 0.155906033012211 0.490968996986131 0.311454528676835 0.197576474337034 0.438215520560907 0.323285905533922 0.238498573905171</probabilities>
		</cpt>
		<cpt id="EV_2">
			<state id="High" />
			<state id="Medium" />
			<state id="Low" />
			<parents>Information_Facilities__2 Perceived_Viability_2 Environment_Norm_2</parents>
			<probabilities>0.06532953599999999 0.71807919 0.216591274 0.7465921385340342 0.1998900022171191 0.05351785924884692 0.06532953599999999 0.71807919 0.216591274 0.06532953599999999 0.71807919 0.216591274 0.06532953599999999 0.71807919 0.216591274 0.6761238976315139 0.239230224975116 0.08464587739337008 0.06532953599999999 0.71807919 0.216591274 0.06532953599999999 0.71807919 0.216591274 0.605603599367058 0.272121507977855 0.122274892655087 0.6802484739044059 0.2371062059537919 0.08264532014180219 0.6802484739044059 0.2371062059537919 0.08264532014180219 0.6802484739044059 0.2371062059537919 0.08264532014180219 0.5977927161259384 0.2753645735143218 0.1268427103597399 0.5977927161259384 0.2753645735143218 0.1268427103597399 0.5977927161259384 0.2753645735143218 0.1268427103597399 0.518891603006589 0.303541970347505 0.177566426645906 0.518891603006589 0.303541970347505 0.177566426645906 0.518891603006589 0.303541970347505 0.177566426645906 0.6142660242900611 0.268431026726599 0.11730294898334 0.6142660242900611 0.268431026726599 0.11730294898334 0.6142660242900611 0.268431026726599 0.11730294898334 0.523279558061575 0.302198350353646 0.174522091584779 0.523279558061575 0.302198350353646 0.174522091584779 0.523279558061575 0.302198350353646 0.174522091584779 0.06532953599999999 0.71807919 0.216591274 0.06532953599999999 0.71807919 0.216591274 0.06532953599999999 0.71807919 0.216591274</probabilities>
		</cpt>
		<cpt id="Sustainable_Electricity">
			<state id="High" />
			<state id="Medium" />
			<state id="Low" />
			<parents>PV_2 EV_2</parents>
			<probabilities>0.7423319224574724 0.2024536079396431 0.05521446960288443 0.7423319224574724 0.2024536079396431 0.05521446960288443 0.7423319224574724 0.2024536079396431 0.05521446960288443 0.742331922457472 0.05521446754252796 0.20245361 0.742331922457472 0.05521446754252796 0.20245361 0.742331922457472 0.05521446754252796 0.20245361 0.438755780087009 0.32318621139262 0.238058008520371 0.438755780087009 0.32318621139262 0.238058008520371 0.438755780087009 0.32318621139262 0.238058008520371</probabilities>
		</cpt>
		<cpt id="Bike_users_2">
			<state id="High" />
			<state id="Medium" />
			<state id="Low" />
			<parents>Information_Facilities__2 Perceived_Viability_2 Environment_Norm_2</parents>
			<probabilities>0.7423319224574725 0.2024536079396431 0.05521446960288444 0.7423319224574725 0.2024536079396431 0.05521446960288444 0.7423319224574725 0.2024536079396431 0.05521446960288444 0.06532953599999999 0.71807919 0.216591274 0.06532953599999999 0.71807919 0.216591274 0.7423319224574725 0.2024536079396431 0.05521446960288444 0.7423319224574725 0.2024536079396431 0.05521446960288444 0.06532953599999999 0.71807919 0.216591274 0.06532953599999999 0.71807919 0.216591274 0.06532953599999999 0.71807919 0.216591274 0.06532953599999999 0.71807919 0.216591274 0.06532953599999999 0.71807919 0.216591274 0.06532953599999999 0.71807919 0.216591274 0.594349522842705 0.276768621121901 0.128881856035394 0.594349522842705 0.276768621121901 0.128881856035394 0.594349522842705 0.276768621121901 0.128881856035394 0.594349522842705 0.276768621121901 0.128881856035394 0.594349522842705 0.276768621121901 0.128881856035394 0.438755780087009 0.32318621139262 0.238058008520371 0.438755780087009 0.32318621139262 0.238058008520371 0.438755780087009 0.32318621139262 0.238058008520371 0.438755780087009 0.32318621139262 0.238058008520371 0.438755780087009 0.32318621139262 0.238058008520371 0.438755780087009 0.32318621139262 0.238058008520371 0.438755780087009 0.32318621139262 0.238058008520371 0.438755780087009 0.32318621139262 0.238058008520371 0.438755780087009 0.32318621139262 0.238058008520371</probabilities>
		</cpt>
		<cpt id="Sustainable_Mobility_2">
			<state id="High" />
			<state id="Medium" />
			<state id="Low" />
			<parents>EV_2 Bike_users_2</parents>
			<probabilities>0.765416424207538 0.188273133802161 0.0463104419903005 0.3 0.69698346 0.003016539999999956 0.62744215394837 0.262629000266066 0.109928845785565 0.695664851872748 0.228971407506503 0.07536374062074851 0.3 0.69698346 0.003016539999999956 0.5336761117280689 0.29890788319004 0.167416005081892 0.3 0.69698346 0.003016539999999956 0.532225825786336 0.299375883247724 0.16839829096594 0.447274353408563 0.321554159429903 0.231171487161535</probabilities>
		</cpt>
		<cpt id="Heat_Pump_2">
			<state id="High" />
			<state id="Medium" />
			<state id="Low" />
			<parents>Information_Facilities__2 Perceived_Viability_2 Environment_Norm_2</parents>
			<probabilities>0.7493617256503361 0.1982104695827321 0.05242780476693192 0.7493617256503361 0.1982104695827321 0.05242780476693192 0.7493617256503361 0.1982104695827321 0.05242780476693192 0.6828797947636409 0.2357396103896499 0.08138059484670929 0.6828797947636409 0.2357396103896499 0.08138059484670929 0.6828797947636409 0.2357396103896499 0.08138059484670929 0.6165790643061624 0.2674289384561787 0.1159919972376589 0.6165790643061624 0.2674289384561787 0.1159919972376589 0.6165790643061624 0.2674289384561787 0.1159919972376589 0.6787791837886958 0.23786537649489 0.08335543971641418 0.6787791837886958 0.23786537649489 0.08335543971641418 0.6787791837886958 0.23786537649489 0.08335543971641418 0.600047894583833 0.274436484537783 0.125515620878384 0.600047894583833 0.274436484537783 0.125515620878384 0.600047894583833 0.274436484537783 0.125515620878384 0.524982144681972 0.301669769534635 0.173348085783393 0.524982144681972 0.301669769534635 0.173348085783393 0.524982144681972 0.301669769534635 0.173348085783393 0.6079460075365 0.271133287691705 0.120920704771795 0.6079460075365 0.271133287691705 0.120920704771795 0.6079460075365 0.271133287691705 0.120920704771795 0.520599230137098 0.303022283425193 0.176378486437709 0.520599230137098 0.303022283425193 0.176378486437709 0.520599230137098 0.303022283425193 0.176378486437709 0.4412813623481106 0.3227141124748617 0.2360045251770278 0.4412813623481106 0.3227141124748617 0.2360045251770278 0.4412813623481106 0.3227141124748617 0.2360045251770278</probabilities>
		</cpt>
		<cpt id="District_Heating_2">
			<state id="High" />
			<state id="Medium" />
			<state id="Low" />
			<parents>Environment_Norm_2</parents>
			<probabilities>0.7534145544994376 0.1957343672003929 0.05085107830016938 0.7534145544994376 0.1957343672003929 0.05085107830016938 0.7534145544994376 0.1957343672003929 0.05085107830016938</probabilities>
		</cpt>
		<cpt id="Bio_Gas_2">
			<state id="High" />
			<state id="Medium" />
			<state id="Low" />
			<parents>Environment_Norm_2</parents>
			<probabilities>0.7423319224574724 0.2024536079396431 0.05521446960288443 0.594349522842705 0.276768621121901 0.128881856035394 0.438755780087009 0.32318621139262 0.238058008520371</probabilities>
		</cpt>
		<cpt id="Sustainable_Heating_2">
			<state id="High" />
			<state id="Medium" />
			<state id="Low" />
			<parents>Heat_Pump_2 District_Heating_2 Bio_Gas_2</parents>
			<probabilities>0.764664384656509 0.188746321349962 0.0465892939935292 0.725830397581701 0.2121570340995 0.0620125683187991 0.688693150170915 0.232688483512944 0.07861836631614059 0.7168887005419839 0.217265336826944 0.0658459626310722 0.672187261540988 0.241236842708525 0.08657589575048651 0.630146928781063 0.261409896073505 0.108443175145432 0.670269898432748 0.242206887024482 0.08752321454277009 0.620726640754218 0.265614516737919 0.113658842507863 0.57494927233797 0.28438572529743 0.1406650023646 0.717746955125076 0.216779574571807 0.06547347030311609 0.673143040751212 0.240751505119975 0.08610545412881319 0.631181277385384 0.260941167623317 0.107877554991299 0.662976245049594 0.245853300659569 0.0911704542908366 0.612758453022556 0.269080382592271 0.118161164385174 0.566491053966415 0.287549504791273 0.145959441242312 0.610627689653933 0.269993080322434 0.119379230023633 0.556255472949735 0.291249431630629 0.152495095419636 0.507221648834987 0.306983768893773 0.185794582271239 0.672050563564602 0.241306159916467 0.0866432765189315 0.622675461453946 0.264754200939564 0.112570337606489 0.577021623274764 0.283595959848309 0.139382416876927 0.611541688054009 0.269602305227502 0.118856006718489 0.557231457895121 0.290902738394965 0.151865803709914 0.508234683813218 0.306692620059275 0.185072696127506 0.554952734068315 0.291710185232225 0.15333708069946 0.497534074955084 0.309694203925141 0.192771721119775 0.44698617189401 0.321611210032823 0.231402618073167</probabilities>
		</cpt>
		<cpt id="Environment_Norm_1">
			<state id="High" />
			<state id="Medium" />
			<state id="Low" />
			<probabilities>0.34 0.33 0.33</probabilities>
		</cpt>
		<cpt id="Perceived_Viability_1">
			<state id="High" />
			<state id="Medium" />
			<state id="Low" />
			<probabilities>0.41 0.32 0.27</probabilities>
		</cpt>
		<cpt id="Information_Facilities__1">
			<state id="High" />
			<state id="Medium" />
			<state id="Low" />
			<probabilities>0.55 0.34 0.11</probabilities>
		</cpt>
		<cpt id="PV_1">
			<state id="High" />
			<state id="Medium" />
			<state id="Low" />
			<parents>Information_Facilities__1 Perceived_Viability_1 Environment_Norm_1</parents>
			<probabilities>0.5 0.5 0 0.665814070049896 0.244442762015451 0.0897431679346528 0.5 0.3 0.2 0.656146299073385 0.249205227619953 0.09464847330666221 0.612398787322922 0.269234860868961 0.118366351808117 0.572487892148399 0.285316288858228 0.142195818993373 0.5 0.3 0.2 0.562955977101784 0.288843327012375 0.148200695885841 0.520850643074021 0.302945425645566 0.176203931280412 0.665814070049896 0.244442762015451 0.0897431679346528 0.622827433788499 0.264686903291863 0.112485662919638 0.583482739926805 0.281096878656953 0.135420381416242 0.612398787322922 0.269234860868961 0.118366351808117 0.565645703706615 0.28786042906116 0.146493867232225 0.523638547069689 0.30208723563733 0.174274217292981 0.562955977101784 0.288843327012375 0.148200695885841 0.513699771679055 0.305096891099107 0.181203337221837 0.470240510350808 0.316600604652795 0.213158884996398 0.6291694858001829 0.261851554017125 0.108978960182692 0.583482739926805 0.281096878656953 0.135420381416242 0.542188935099679 0.296102415455776 0.161708649444545 0.572487892148399 0.285316288858228 0.142195818993373 0.523638547069689 0.30208723563733 0.174274217292981 0.480383904477467 0.314161168720015 0.205454926802518 0.520850643074021 0.302945425645566 0.176203931280412 0.470240510350808 0.316600604652795 0.213158884996398 0.426303239251741 0.325367089802451 0.248329670945807</probabilities>
		</cpt>
		<cpt id="Bike_users_1">
			<state id="High" />
			<state id="Medium" />
			<state id="Low" />
			<parents>Information_Facilities__1 Perceived_Viability_1 Environment_Norm_1</parents>
			<probabilities>0.6972129921498487 0.2281374027510102 0.07464960509914127 0.6972129921498487 0.2281374027510102 0.07464960509914127 0.6972129921498487 0.2281374027510102 0.07464960509914127 0.2 0.7 0.1 0.6972129921498487 0.2281374027510102 0.07464960509914127 0.2 0.7 0.1 0.6972129921498487 0.2281374027510102 0.07464960509914127 0.3 0.5 0.2 0.6972129921498487 0.2281374027510102 0.07464960509914127 0.559598241447143 0.290056648374269 0.150345110178588 0.559598241447143 0.290056648374269 0.150345110178588 0.559598241447143 0.290056648374269 0.150345110178588 0.559598241447143 0.290056648374269 0.150345110178588 0.559598241447143 0.290056648374269 0.150345110178588 0.559598241447143 0.290056648374269 0.150345110178588 0.559598241447143 0.290056648374269 0.150345110178588 0.559598241447143 0.290056648374269 0.150345110178588 0.559598241447143 0.290056648374269 0.150345110178588 0.4237315604317004 0.3257867413557383 0.2504816982125612 0.4237315604317004 0.3257867413557383 0.2504816982125612 0.4237315604317004 0.3257867413557383 0.2504816982125612 0.4237315604317004 0.3257867413557383 0.2504816982125612 0.4237315604317004 0.3257867413557383 0.2504816982125612 0.4237315604317004 0.3257867413557383 0.2504816982125612 0.4237315604317004 0.3257867413557383 0.2504816982125612 0.4237315604317004 0.3257867413557383 0.2504816982125612 0.4237315604317004 0.3257867413557383 0.2504816982125612</probabilities>
		</cpt>
		<cpt id="EV_1">
			<state id="High" />
			<state id="Medium" />
			<state id="Low" />
			<parents>Information_Facilities__1 Perceived_Viability_1 Environment_Norm_1</parents>
			<probabilities>0.06532953599999999 0.71807919 0.216591274 0.06532953599999999 0.71807919 0.216591274 0.06532953599999999 0.71807919 0.216591274 0.06532953599999999 0.71807919 0.216591274 0.6448625718482655 0.2546101072360078 0.1005273209157269 0.06532953599999999 0.71807919 0.216591274 0.5731767632659047 0.2850566671559973 0.1417665695780982 0.06532953599999999 0.71807919 0.216591274 0.5731767632659047 0.2850566671559973 0.1417665695780982 0.06532953599999999 0.71807919 0.216591274 0.6579261919581592 0.2483375504866381 0.09373625755520272 0.6579261919581592 0.2483375504866381 0.09373625755520272 0.06532953599999999 0.71807919 0.216591274 0.575303593956999 0.284251101284938 0.140445304758063 0.575303593956999 0.284251101284938 0.140445304758063 0.06532953599999999 0.71807919 0.216591274 0.4975906397892356 0.3096787674047303 0.1927305928060342 0.4975906397892356 0.3096787674047303 0.1927305928060342 0.599981035465558 0.274464096033022 0.12555486850142 0.599981035465558 0.274464096033022 0.12555486850142 0.599981035465558 0.274464096033022 0.12555486850142 0.510887040016926 0.305923440431839 0.183189519551235 0.510887040016926 0.305923440431839 0.183189519551235 0.510887040016926 0.305923440431839 0.183189519551235 0.4304459055341295 0.3246688394846853 0.2448852549811853 0.4304459055341295 0.3246688394846853 0.2448852549811853 0.06532953599999999 0.71807919 0.216591274</probabilities>
		</cpt>
		<cpt id="Electrictiy_demand_1">
			<state id="High" />
			<state id="Medium" />
			<state id="Low" />
			<parents>PV_1 EV_1</parents>
			<probabilities>0.6842330454309979 0.2350332846015999 0.08073366996740218 0.6842330454309979 0.2350332846015999 0.08073366996740218 0.6842330454309979 0.2350332846015999 0.08073366996740218 0.55010983020656 0.293402832877291 0.156487336916149 0.55010983020656 0.293402832877291 0.156487336916149 0.55010983020656 0.293402832877291 0.156487336916149 0.419729081206391 0.326418691466035 0.253852227327574 0.419729081206391 0.326418691466035 0.253852227327574 0.419729081206391 0.326418691466035 0.253852227327574</probabilities>
		</cpt>
		<cpt id="Sustainable_Mobility_1">
			<state id="High" />
			<state id="Medium" />
			<state id="Low" />
			<parents>Bike_users_1 EV_1</parents>
			<probabilities>0.2537704602216628 0.64663842 0.09959111977833709 0.2537704602216628 0.64663842 0.09959111977833709 0.7128784673969705 0.2195222975154321 0.06759923508759744 0.2537704602216628 0.64663842 0.09959111977833709 0.6466384235274369 0.253770456694226 0.09959111977833709 0.118878736830284 0.300668093169716 0.58045317 0.5825755270585573 0.2814511329260697 0.1359733400153729 0.118878736830284 0.300668093169716 0.58045317 0.2537704602216628 0.64663842 0.09959111977833709</probabilities>
		</cpt>
		<cpt id="Heat_Pump_1">
			<state id="High" />
			<state id="Medium" />
			<state id="Low" />
			<parents>Information_Facilities__1 Perceived_Viability_1 Environment_Norm_1</parents>
			<probabilities>0.724960377122339 0.212658677995696 0.0623809448819651 0.724960377122339 0.212658677995696 0.0623809448819651 0.724960377122339 0.212658677995696 0.0623809448819651 0.6578185786379831 0.2483901276537011 0.09379129370831583 0.6578185786379831 0.2483901276537011 0.09379129370831583 0.6578185786379831 0.2483901276537011 0.09379129370831583 0.5921906958052614 0.2776409422660508 0.1301683619286879 0.5921906958052614 0.2776409422660508 0.1301683619286879 0.5921906958052614 0.2776409422660508 0.1301683619286879 0.6578185786379831 0.2483901276537011 0.09379129370831583 0.6578185786379831 0.2483901276537011 0.09379129370831583 0.6578185786379831 0.2483901276537011 0.09379129370831583 0.5806158449235214 0.2822126233628677 0.1371715317136109 0.5806158449235214 0.2822126233628677 0.1371715317136109 0.5806158449235214 0.2822126233628677 0.1371715317136109 0.5082012101031745 0.3067022637360343 0.1850965261607912 0.5082012101031745 0.3067022637360343 0.1850965261607912 0.5082012101031745 0.3067022637360343 0.1850965261607912 0.5921906958052614 0.2776409422660508 0.1301683619286879 0.5921906958052614 0.2776409422660508 0.1301683619286879 0.5921906958052614 0.2776409422660508 0.1301683619286879 0.5082012101031745 0.3067022637360343 0.1850965261607912 0.5082012101031745 0.3067022637360343 0.1850965261607912 0.5082012101031745 0.3067022637360343 0.1850965261607912 0.4327442622230534 0.3242696771662113 0.2429860606107352 0.4327442622230534 0.3242696771662113 0.2429860606107352 0.4327442622230534 0.3242696771662113 0.2429860606107352</probabilities>
		</cpt>
		<cpt id="District_Heating_1">
			<state id="High" />
			<state id="Medium" />
			<state id="Low" />
			<parents>Perceived_Viability_1 Environment_Norm_1 Information_Facilities__1</parents>
			<probabilities>0.25 0.5 0.25 0.3 0.4 0.3 0.3 0.4 0.3 0.7337586780901069 0.207539784797199 0.05870153711269419 0.7337586780901069 0.207539784797199 0.05870153711269419 0.7337586780901069 0.207539784797199 0.05870153711269419 0.9 0.05 0.05 0.7337586780901069 0.207539784797199 0.05870153711269419 0.7337586780901069 0.207539784797199 0.05870153711269419 0.587511863280947 0.27951034258038 0.132977794138673 0.1 0.8 0.1 0.587511863280947 0.27951034258038 0.132977794138673 0.587511863280947 0.27951034258038 0.132977794138673 0.587511863280947 0.27951034258038 0.132977794138673 0.587511863280947 0.27951034258038 0.132977794138673 0.587511863280947 0.27951034258038 0.132977794138673 0.587511863280947 0.27951034258038 0.132977794138673 0.587511863280947 0.27951034258038 0.132977794138673 0.1 0.8 0.1 0.435749869077687 0.323735079933536 0.240515050988777 0.1 0.8 0.1 0.435749869077687 0.323735079933536 0.240515050988777 0.1 0.8 0.1 0.1 0.8 0.1 0.1 0.8 0.1 0.435749869077687 0.323735079933536 0.240515050988777 0.435749869077687 0.323735079933536 0.240515050988777</probabilities>
		</cpt>
		<cpt id="Bio_Gas_1">
			<state id="High" />
			<state id="Medium" />
			<state id="Low" />
			<parents>Environment_Norm_1 Information_Facilities__1 Perceived_Viability_1</parents>
			<probabilities>0.25 0.5 0.25 0.7066872107735931 0.222965426618058 0.07034736260834891 0.25 0.5 0.25 0.7066872107735931 0.222965426618058 0.07034736260834891 0.1 0.8 0.1 0.7066872107735931 0.222965426618058 0.07034736260834891 0.25 0.5 0.25 0.25 0.5 0.25 0.7066872107735931 0.222965426618058 0.07034736260834891 0.566656870433439 0.287488403906282 0.145854725660279 0.566656870433439 0.287488403906282 0.145854725660279 0.566656870433439 0.287488403906282 0.145854725660279 0.566656870433439 0.287488403906282 0.145854725660279 0.566656870433439 0.287488403906282 0.145854725660279 0.566656870433439 0.287488403906282 0.145854725660279 0.566656870433439 0.287488403906282 0.145854725660279 0.566656870433439 0.287488403906282 0.145854725660279 0.566656870433439 0.287488403906282 0.145854725660279 0.4267348778890086 0.3252956151846967 0.2479695069262948 0.4267348778890086 0.3252956151846967 0.2479695069262948 0.4267348778890086 0.3252956151846967 0.2479695069262948 0.4267348778890086 0.3252956151846967 0.2479695069262948 0.4267348778890086 0.3252956151846967 0.2479695069262948 0.4267348778890086 0.3252956151846967 0.2479695069262948 0.4267348778890086 0.3252956151846967 0.2479695069262948 0.4267348778890086 0.3252956151846967 0.2479695069262948 0.4267348778890086 0.3252956151846967 0.2479695069262948</probabilities>
		</cpt>
		<cpt id="Sustainable_Heating_1">
			<state id="High" />
			<state id="Medium" />
			<state id="Low" />
			<parents>Heat_Pump_1 District_Heating_1 Bio_Gas_1</parents>
			<probabilities>0.70637833243186 0.223135890531518 0.0704857770366227 0.673007687480658 0.240820308642551 0.08617200387679121 0.642373103254942 0.255780258870242 0.101846637874816 0.658323941730664 0.248143089340115 0.0935329689292206 0.621394098846105 0.265320423650059 0.113285477503836 0.587933165910882 0.279343202612002 0.132723631477116 0.61315852839348 0.268908348777889 0.117933122828631 0.5735294600711 0.284923496967608 0.141547042961292 0.538092201573922 0.297464965766835 0.164442832659243 0.659330286079286 0.247650166365227 0.09301954755548671 0.622467861656231 0.264846083197775 0.112686055145994 0.5890585216737551 0.278895594925761 0.132045883400484 0.606401687293547 0.271785619262747 0.121812693443706 0.56642489413334 0.287573873383344 0.146001232483316 0.530749312281415 0.299849359552202 0.169401328166383 0.557595426764953 0.290773117860715 0.151631455374332 0.515556001429079 0.304545312399832 0.179898686171089 0.478604017140403 0.314600205925466 0.206795776934131 0.6151764354848061 0.268037442216361 0.116786122298833 0.575654090085299 0.284117765678935 0.140228144235766 0.540290908430809 0.296736552141357 0.162972539427834 0.558593150503082 0.290416878742099 0.15098997075482 0.516587854695282 0.304236601585035 0.179175543719682 0.479654135598409 0.314341740643599 0.206004123757993 0.507397902270449 0.306933217803653 0.185668879925898 0.464086718912039 0.318006053696229 0.217907227391733 0.426635811445612 0.325312045857795 0.248052142696594</probabilities>
		</cpt>
		<cpt id="GHG_Emission_1">
			<state id="Low" />
			<state id="Medium" />
			<state id="High" />
			<parents>Electrictiy_demand_1 Sustainable_Mobility_1 Sustainable_Heating_1 GHG_Emission</parents>
			<probabilities>0.641907320157712 0.179046339921144 0.179046339921144 0.641907320157712 0.179046339921144 0.179046339921144 0.641907320157712 0.179046339921144 0.179046339921144 0.6009852351096017 0.1995073824451992 0.1995073824451992 0.6009852351096017 0.1995073824451992 0.1995073824451992 0.6009852351096017 0.1995073824451992 0.1995073824451992 0.5639710686051057 0.2180144656974473 0.2180144656974473 0.5639710686051057 0.2180144656974473 0.2180144656974473 0.5639710686051057 0.2180144656974473 0.2180144656974473 0.6051902754187856 0.1974048622906072 0.1974048622906072 0.6051902754187856 0.1974048622906072 0.1974048622906072 0.6051902754187856 0.1974048622906072 0.1974048622906072 0.5620760928515357 0.2189619535742323 0.2189619535742323 0.5620760928515357 0.2189619535742323 0.2189619535742323 0.5620760928515357 0.2189619535742323 0.2189619535742323 0.523535334788342 0.238232332605829 0.238232332605829 0.523535334788342 0.238232332605829 0.238232332605829 0.523535334788342 0.238232332605829 0.238232332605829 0.5721216730209721 0.213939163489514 0.213939163489514 0.5721216730209721 0.213939163489514 0.213939163489514 0.5721216730209721 0.213939163489514 0.213939163489514 0.5274411267681716 0.2362794366159142 0.2362794366159142 0.5274411267681716 0.2362794366159142 0.2362794366159142 0.5274411267681716 0.2362794366159142 0.2362794366159142 0.487938287950194 0.256030856024903 0.256030856024903 0.487938287950194 0.256030856024903 0.256030856024903 0.487938287950194 0.256030856024903 0.256030856024903 0.3720008499285746 0.2559983001428507 0.3720008499285746 0.3720008499285746 0.2559983001428507 0.3720008499285746 0.3720008499285746 0.2559983001428507 0.3720008499285746 0.3629756195769557 0.2740487608460888 0.3629756195769557 0.3629756195769557 0.2740487608460888 0.3629756195769557 0.3629756195769557 0.2740487608460888 0.3629756195769557 0.355763235047123 0.288473529905754 0.355763235047123 0.355763235047123 0.288473529905754 0.355763235047123 0.355763235047123 0.288473529905754 0.355763235047123 0.3638524335146254 0.2722951329707493 0.3638524335146254 0.3638524335146254 0.2722951329707493 0.3638524335146254 0.3638524335146254 0.2722951329707493 0.3638524335146254 0.355418627634809 0.289162744730382 0.355418627634809 0.355418627634809 0.289162744730382 0.355418627634809 0.355418627634809 0.289162744730382 0.355418627634809 0.348940399782858 0.302119200434284 0.348940399782858 0.348940399782858 0.302119200434284 0.348940399782858 0.348940399782858 0.302119200434284 0.348940399782858 0.357272974578908 0.285454050842184 0.357272974578908 0.357272974578908 0.285454050842184 0.357272974578908 0.357272974578908 0.285454050842184 0.357272974578908 0.349550381000749 0.300899237998502 0.349550381000749 0.349550381000749 0.300899237998502 0.349550381000749 0.349550381000749 0.300899237998502 0.349550381000749 0.3438769227245477 0.3122461545509047 0.3438769227245477 0.3438769227245477 0.3122461545509047 0.3438769227245477 0.3438769227245477 0.3122461545509047 0.3438769227245477 0.448952810150282 0.448952810150282 0.102094379699436 0.448952810150282 0.448952810150282 0.102094379699436 0.448952810150282 0.448952810150282 0.102094379699436 0.437516997977845 0.437516997977845 0.12496600404431 0.437516997977845 0.437516997977845 0.12496600404431 0.437516997977845 0.437516997977845 0.12496600404431 0.4262222992554295 0.4262222992554295 0.1475554014891412 0.4262222992554295 0.4262222992554295 0.1475554014891412 0.4262222992554295 0.4262222992554295 0.1475554014891412 0.438742704194767 0.438742704194767 0.122514591610466 0.438742704194767 0.438742704194767 0.122514591610466 0.438742704194767 0.438742704194767 0.122514591610466 0.425619418790959 0.425619418790959 0.148761162418082 0.425619418790959 0.425619418790959 0.148761162418082 0.425619418790959 0.425619418790959 0.148761162418082 0.412827267611313 0.412827267611313 0.174345464777374 0.412827267611313 0.412827267611313 0.174345464777374 0.412827267611313 0.412827267611313 0.174345464777374 0.428787861931578 0.428787861931578 0.142424276136844 0.428787861931578 0.428787861931578 0.142424276136844 0.428787861931578 0.428787861931578 0.142424276136844 0.4141701823833364 0.4141701823833364 0.1716596352333271 0.4141701823833364 0.4141701823833364 0.1716596352333271 0.4141701823833364 0.4141701823833364 0.1716596352333271 0.400092221250549 0.400092221250549 0.199815557498902 0.400092221250549 0.400092221250549 0.199815557498902 0.400092221250549 0.400092221250549 0.199815557498902</probabilities>
		</cpt>
		<cpt id="GHG_Emission_2">
			<state id="Low" />
			<state id="Medium" />
			<state id="High" />
			<parents>GHG_Emission_1 Sustainable_Electricity Sustainable_Mobility_2 Sustainable_Heating_2</parents>
			<probabilities>0.4 0.3 0.3 0 0.5000000048307378 0.4999999951692622 0.688693150170915 0.232688483512944 0.07861836631614059 0.95 0.04 0.01 0.672187261540988 0.241236842708525 0.08657589575048651 0.630146928781063 0.261409896073505 0.108443175145432 0.95 0.04 0.01 0.620726640754218 0.265614516737919 0.113658842507863 0.446789184940153 0.321650133314458 0.231560681745389 0.559752621818153 0.290001196625596 0.150246181556251 0.519494538291283 0.303358943575749 0.177146518132968 0.9175927 0.0383849952 0.04402230479999996 0.525442708811163 0.301526090098205 0.173031201090632 0.484224926497907 0.313197893143289 0.202577180358804 0.448372983941435 0.321335491449773 0.230291524608793 0.95 0.04 0.01 0.453614153157183 0.320266778763447 0.22611906807937 0.9175927 0.0383849952 0.04402230479999996 0.9 0.1 0 0.494982735933939 0.310385683254402 0.194631580811658 0.459232822765902 0.319074515858195 0.221692661375903 0.501015644440576 0.30873553934954 0.190248816209883 0.459355125502512 0.319048030791127 0.221596843706361 0.9175927 0.0383849952 0.04402230479999996 0.9 0.1 0 0.428638607768199 0.324976826007544 0.246384566224257 0.9175927 0.0383849952 0.04402230479999996 0.9 0.1 0 0.547596010331479 0.294268863638686 0.158135126029835 0.5128285158179831 0.305354111475514 0.181817372706503 0.55341306200653 0.292251770726262 0.154335167267208 0.512948345948419 0.305318797558535 0.181732856493046 0.47744435888073 0.314883747199204 0.207671893920065 0.9 0.1 0 0.482653174775551 0.31359467678838 0.20375214843607 0.446789184940153 0.321650133314458 0.231560681745389 0.9 0.1 0 0.519494538291283 0.303358943575749 0.177146518132968 0.484103424105156 0.313228694753212 0.202667881141632 0.9175927 0.0383849952 0.04402230479999996 0.484224926497907 0.313197893143289 0.202577180358804 0.448372983941435 0.321335491449773 0.230291524608793 0.495348319735702 0.310287175116003 0.194364505148295 0.453614153157183 0.320266778763447 0.22611906807937 0.9175927 0.0383849952 0.04402230479999996 0.535948196301876 0.298168855936146 0.165882947761978 0.494982735933939 0.310385683254402 0.194631580811658 0.459232822765902 0.319074515858195 0.221692661375903 0.501015644440576 0.30873553934954 0.190248816209883 0.459355125502512 0.319048030791127 0.221596843706361 0.423398846371621 0.325840258177348 0.25076089545103 0.470564478122806 0.316525048014044 0.21291047386315 0.428638607768199 0.324976826007544 0.246384566224257 0.9175927 0.0383849952 0.04402230479999996 0.586824855258722 0.27978238846431 0.133392756276968 0.547596010331479 0.294268863638686 0.158135126029835 0.5128285158179831 0.305354111475514 0.181817372706503 0.55341306200653 0.292251770726262 0.154335167267208 0.512948345948419 0.305318797558535 0.181732856493046 0.9175927 0.0383849952 0.04402230479999996 0.5239047888746911 0.302004712105621 0.174090499019688 0.482653174775551 0.31359467678838 0.20375214843607 0.9175927 0.0383849952 0.04402230479999996 0.559752621818153 0.290001196625596 0.150246181556251 0.519494538291283 0.303358943575749 0.177146518132968 0.9175927 0.0383849952 0.04402230479999996 0.525442708811163 0.301526090098205 0.173031201090632 0.484224926497907 0.313197893143289 0.202577180358804 0.9175927 0.0383849952 0.04402230479999996 0.495348319735702 0.310287175116003 0.194364505148295 0.9175927 0.0383849952 0.04402230479999996 0.9175927 0.0383849952 0.04402230479999996 0.535948196301876 0.298168855936146 0.165882947761978 0.494982735933939 0.310385683254402 0.194631580811658 0.9175927 0.0383849952 0.04402230479999996 0.501015644440576 0.30873553934954 0.190248816209883 0.9175927 0.0383849952 0.04402230479999996 0.423398846371621 0.325840258177348 0.25076089545103 0.9175927 0.0383849952 0.04402230479999996 0.9175927 0.0383849952 0.04402230479999996 0.9175927 0.0383849952 0.04402230479999996</probabilities>
		</cpt>
	</nodes>
	<extensions>
		<genie version="1.0" app="GeNIe 4.0.2304.0 ACADEMIC" name="Network3 unrolled">
			<node id="Information_Facilities_">
				<name>Information Facilities </name>
				<interior color="e5f6f7" />
				<outline color="000080" />
				<font color="000000" name="Arial" size="8" />
				<position>178 97 306 205</position>
				<barchart active="true" width="157" height="80" />
			</node>
			<node id="Perceived_Viability">
				<name>Perceived Viability</name>
				<interior color="e5f6f7" />
				<outline color="000080" />
				<font color="000000" name="Arial" size="8" />
				<position>401 93 529 201</position>
				<barchart active="true" width="157" height="80" />
			</node>
			<node id="Environment_Norm">
				<name>Environment Norm</name>
				<interior color="e5f6f7" />
				<outline color="000080" />
				<font color="000000" name="Arial" size="8" />
				<position>617 93 745 201</position>
				<barchart active="true" width="157" height="80" />
			</node>
			<node id="PV">
				<name>PV</name>
				<interior color="99cc00" />
				<outline color="000080" />
				<font color="000000" name="Arial" size="8" />
				<position>26 316 143 424</position>
				<barchart active="true" width="131" height="72" />
			</node>
			<node id="Electrictiy_demand">
				<name>Sustainable Electricity</name>
				<interior color="ffff99" />
				<outline color="000080" />
				<font color="000000" name="Arial" size="8" />
				<position>182 466 310 574</position>
				<barchart active="true" width="159" height="84" />
			</node>
			<node id="EV">
				<name>EV</name>
				<interior color="99cc00" />
				<outline color="000080" />
				<font color="000000" name="Arial" size="8" />
				<position>182 319 303 427</position>
				<barchart active="true" width="131" height="72" />
			</node>
			<node id="Bike_users">
				<name>Bike users</name>
				<interior color="99cc00" />
				<outline color="000080" />
				<font color="000000" name="Arial" size="8" />
				<position>328 319 456 427</position>
				<barchart active="true" width="131" height="72" />
			</node>
			<node id="Sustainable_Mobility">
				<name>Sustainable Mobility</name>
				<interior color="ffff99" />
				<outline color="000080" />
				<font color="000000" name="Arial" size="8" />
				<position>402 470 530 578</position>
				<barchart active="true" width="159" height="84" />
			</node>
			<node id="Heat_Pump">
				<name>Heat Pump</name>
				<interior color="99cc00" />
				<outline color="000080" />
				<font color="000000" name="Arial" size="8" />
				<position>476 319 604 427</position>
				<barchart active="true" width="131" height="72" />
			</node>
			<node id="District_Heating">
				<name>District Heating</name>
				<interior color="99cc00" />
				<outline color="000080" />
				<font color="000000" name="Arial" size="8" />
				<position>619 318 747 426</position>
				<barchart active="true" width="131" height="72" />
			</node>
			<node id="Bio_Gas">
				<name>Bio Gas</name>
				<interior color="99cc00" />
				<outline color="000080" />
				<font color="000000" name="Arial" size="8" />
				<position>772 315 900 423</position>
				<barchart active="true" width="131" height="72" />
			</node>
			<node id="Sustainable_Heating">
				<name>Sustainable Heating</name>
				<interior color="ffff99" />
				<outline color="000080" />
				<font color="000000" name="Arial" size="8" />
				<position>617 473 745 581</position>
				<barchart active="true" width="159" height="84" />
			</node>
			<node id="GHG_Emission">
				<name>GHG Emission</name>
				<interior color="ff9900" />
				<outline color="000080" />
				<font color="000000" name="Arial" size="8" />
				<position>407 619 528 727</position>
				<barchart active="true" width="164" height="79" />
			</node>
			<node id="Information_Facilities__1">
				<name>Information Facilities  (t=1)</name>
				<interior color="e5f6f7" />
				<outline color="000080" />
				<font color="000000" name="Arial" size="8" />
				<position>1154 84 1282 192</position>
				<barchart active="true" width="158" height="74" />
			</node>
			<node id="Perceived_Viability_1">
				<name>Perceived Viability (t=1)</name>
				<interior color="e5f6f7" />
				<outline color="000080" />
				<font color="000000" name="Arial" size="8" />
				<position>1364 86 1492 194</position>
				<barchart active="true" width="149" height="76" />
			</node>
			<node id="Environment_Norm_1">
				<name>Environmental Norms (t=1)</name>
				<interior color="e5f6f7" />
				<outline color="000080" />
				<font color="000000" name="Arial" size="8" />
				<position>1593 88 1721 196</position>
				<barchart active="true" width="167" height="75" />
			</node>
			<node id="PV_1">
				<name>PV (t=1)</name>
				<interior color="99cc00" />
				<outline color="000080" />
				<font color="000000" name="Arial" size="8" />
				<position>1005 319 1122 427</position>
				<barchart active="true" width="130" height="80" />
			</node>
			<node id="Electrictiy_demand_1">
				<name>Sustainable Electricity (t=1)</name>
				<interior color="ffff99" />
				<outline color="000080" />
				<font color="000000" name="Arial" size="8" />
				<position>1154 469 1282 577</position>
				<barchart active="true" width="161" height="82" />
			</node>
			<node id="EV_1">
				<name>EV (t=1)</name>
				<interior color="99cc00" />
				<outline color="000080" />
				<font color="000000" name="Arial" size="8" />
				<position>1159 320 1280 428</position>
				<barchart active="true" width="136" height="78" />
			</node>
			<node id="Bike_users_1">
				<name>Bike users (t=1)</name>
				<interior color="99cc00" />
				<outline color="000080" />
				<font color="000000" name="Arial" size="8" />
				<position>1304 322 1432 430</position>
				<barchart active="true" width="134" height="78" />
			</node>
			<node id="Sustainable_Mobility_1">
				<name>Sustainable Mobility (t=1)</name>
				<interior color="ffff99" />
				<outline color="000080" />
				<font color="000000" name="Arial" size="8" />
				<position>1382 469 1510 577</position>
				<barchart active="true" width="163" height="85" />
			</node>
			<node id="Heat_Pump_1">
				<name>Heat Pump (t=1)</name>
				<interior color="99cc00" />
				<outline color="000080" />
				<font color="000000" name="Arial" size="8" />
				<position>1449 321 1577 429</position>
				<barchart active="true" width="133" height="77" />
			</node>
			<node id="District_Heating_1">
				<name>District Heating (t=1)</name>
				<interior color="99cc00" />
				<outline color="000080" />
				<font color="000000" name="Arial" size="8" />
				<position>1591 320 1719 428</position>
				<barchart active="true" width="127" height="78" />
			</node>
			<node id="Bio_Gas_1">
				<name>Bio Gas (t=1)</name>
				<interior color="99cc00" />
				<outline color="000080" />
				<font color="000000" name="Arial" size="8" />
				<position>1737 321 1865 429</position>
				<barchart active="true" width="128" height="78" />
			</node>
			<node id="Sustainable_Heating_1">
				<name>Sustainable Heating (t=1)</name>
				<interior color="ffff99" />
				<outline color="000080" />
				<font color="000000" name="Arial" size="8" />
				<position>1591 469 1719 577</position>
				<barchart active="true" width="165" height="85" />
			</node>
			<node id="GHG_Emission_1">
				<name>GHG Emission (t=1)</name>
				<interior color="ff9900" />
				<outline color="000080" />
				<font color="000000" name="Arial" size="8" />
				<position>1390 619 1511 727</position>
				<barchart active="true" width="176" height="83" />
			</node>
			<node id="Information_Facilities__2">
				<name>Information Facilities  (t=2)</name>
				<interior color="e5f6f7" />
				<outline color="000080" />
				<font color="000000" name="Arial" size="8" />
				<position>2093 106 2221 214</position>
				<barchart active="true" width="172" height="84" />
			</node>
			<node id="Perceived_Viability_2">
				<name>Perceived Viability (t=2)</name>
				<interior color="e5f6f7" />
				<outline color="000080" />
				<font color="000000" name="Arial" size="8" />
				<position>2328 103 2456 211</position>
				<barchart active="true" width="176" height="84" />
			</node>
			<node id="Environment_Norm_2">
				<name>Environmental Norm (t=2)</name>
				<interior color="e5f6f7" />
				<outline color="000080" />
				<font color="000000" name="Arial" size="8" />
				<position>2553 106 2681 214</position>
				<barchart active="true" width="164" height="84" />
			</node>
			<node id="PV_2">
				<name>PV (t=2)</name>
				<interior color="99cc00" />
				<outline color="000080" />
				<font color="000000" name="Arial" size="8" />
				<position>1953 316 2070 424</position>
				<barchart active="true" width="128" height="77" />
			</node>
			<node id="Sustainable_Electricity">
				<name>Sustainable Electricity (t=2)</name>
				<interior color="ffff99" />
				<outline color="000080" />
				<font color="000000" name="Arial" size="8" />
				<position>2096 450 2224 558</position>
				<barchart active="true" width="169" height="80" />
			</node>
			<node id="EV_2">
				<name>EV (t=2)</name>
				<interior color="99cc00" />
				<outline color="000080" />
				<font color="000000" name="Arial" size="8" />
				<position>2099 316 2220 424</position>
				<barchart active="true" width="128" height="74" />
			</node>
			<node id="Bike_users_2">
				<name>Bike users (t=2)</name>
				<interior color="99cc00" />
				<outline color="000080" />
				<font color="000000" name="Arial" size="8" />
				<position>2248 316 2376 424</position>
				<barchart active="true" width="128" height="72" />
			</node>
			<node id="Sustainable_Mobility_2">
				<name>Sustainable Mobility (t=2)</name>
				<interior color="ffff99" />
				<outline color="000080" />
				<font color="000000" name="Arial" size="8" />
				<position>2330 451 2458 559</position>
				<barchart active="true" width="165" height="81" />
			</node>
			<node id="Heat_Pump_2">
				<name>Heat Pump (t=2)</name>
				<interior color="99cc00" />
				<outline color="000080" />
				<font color="000000" name="Arial" size="8" />
				<position>2394 317 2522 425</position>
				<barchart active="true" width="128" height="72" />
			</node>
			<node id="District_Heating_2">
				<name>District Heating (t=2)</name>
				<interior color="99cc00" />
				<outline color="000080" />
				<font color="000000" name="Arial" size="8" />
				<position>2552 316 2680 424</position>
				<barchart active="true" width="128" height="72" />
			</node>
			<node id="Bio_Gas_2">
				<name>Bio Gas (t=2)</name>
				<interior color="99cc00" />
				<outline color="000080" />
				<font color="000000" name="Arial" size="8" />
				<position>2698 315 2826 423</position>
				<barchart active="true" width="128" height="76" />
			</node>
			<node id="Sustainable_Heating_2">
				<name>Sustainable Heating (t=2)</name>
				<interior color="ffff99" />
				<outline color="000080" />
				<font color="000000" name="Arial" size="8" />
				<position>2551 451 2679 559</position>
				<barchart active="true" width="158" height="80" />
			</node>
			<node id="GHG_Emission_2">
				<name>GHG Emission (t=2)</name>
				<interior color="ff9900" />
				<outline color="000080" />
				<font color="000000" name="Arial" size="8" />
				<position>2333 621 2454 729</position>
				<barchart active="true" width="182" height="84" />
			</node>
			<arcformat parent="Perceived_Viability" child="PV" width="1" color="a0a0a0" />
			<arcformat parent="Environment_Norm" child="PV" width="1" color="a0a0a0" />
			<arcformat parent="Information_Facilities_" child="PV" width="1" color="a0a0a0" />
			<arcformat parent="PV" child="Electrictiy_demand" width="1" color="a0a0a0" />
			<arcformat parent="Information_Facilities_" child="EV" width="1" color="a0a0a0" />
			<arcformat parent="Perceived_Viability" child="EV" width="1" color="a0a0a0" />
			<arcformat parent="Information_Facilities_" child="Bike_users" width="1" color="a0a0a0" />
			<arcformat parent="EV" child="Sustainable_Mobility" width="1" color="a0a0a0" />
			<arcformat parent="Bike_users" child="Sustainable_Mobility" width="1" color="a0a0a0" />
			<arcformat parent="Perceived_Viability" child="Heat_Pump" width="1" color="a0a0a0" />
			<arcformat parent="Information_Facilities_" child="Heat_Pump" width="1" color="a0a0a0" />
			<arcformat parent="Environment_Norm" child="Bio_Gas" width="1" color="a0a0a0" />
			<arcformat parent="Heat_Pump" child="Sustainable_Heating" width="1" color="a0a0a0" />
			<arcformat parent="District_Heating" child="Sustainable_Heating" width="1" color="a0a0a0" />
			<arcformat parent="Bio_Gas" child="Sustainable_Heating" width="1" color="a0a0a0" />
			<arcformat parent="Electrictiy_demand" child="GHG_Emission" width="1" color="a0a0a0" />
			<arcformat parent="Sustainable_Mobility" child="GHG_Emission" width="1" color="a0a0a0" />
			<arcformat parent="Sustainable_Heating" child="GHG_Emission" width="1" color="a0a0a0" />
			<arcformat parent="Information_Facilities__2" child="PV_2" width="1" color="a0a0a0" />
			<arcformat parent="Perceived_Viability_2" child="PV_2" width="1" color="a0a0a0" />
			<arcformat parent="Environment_Norm_2" child="PV_2" width="1" color="a0a0a0" />
			<arcformat parent="PV_2" child="Sustainable_Electricity" width="1" color="a0a0a0" />
			<arcformat parent="Information_Facilities__2" child="EV_2" width="1" color="a0a0a0" />
			<arcformat parent="Perceived_Viability_2" child="EV_2" width="1" color="a0a0a0" />
			<arcformat parent="Environment_Norm_2" child="EV_2" width="1" color="a0a0a0" />
			<arcformat parent="Information_Facilities__2" child="Bike_users_2" width="1" color="a0a0a0" />
			<arcformat parent="Perceived_Viability_2" child="Bike_users_2" width="1" color="a0a0a0" />
			<arcformat parent="Environment_Norm_2" child="Bike_users_2" width="1" color="a0a0a0" />
			<arcformat parent="EV_2" child="Sustainable_Mobility_2" width="1" color="a0a0a0" />
			<arcformat parent="Bike_users_2" child="Sustainable_Mobility_2" width="1" color="a0a0a0" />
			<arcformat parent="Information_Facilities__2" child="Heat_Pump_2" width="1" color="a0a0a0" />
			<arcformat parent="Perceived_Viability_2" child="Heat_Pump_2" width="1" color="a0a0a0" />
			<arcformat parent="Environment_Norm_2" child="Bio_Gas_2" width="1" color="a0a0a0" />
			<arcformat parent="Heat_Pump_2" child="Sustainable_Heating_2" width="1" color="a0a0a0" />
			<arcformat parent="District_Heating_2" child="Sustainable_Heating_2" width="1" color="a0a0a0" />
			<arcformat parent="Bio_Gas_2" child="Sustainable_Heating_2" width="1" color="a0a0a0" />
			<arcformat parent="Information_Facilities__1" child="PV_1" width="1" color="a0a0a0" />
			<arcformat parent="Perceived_Viability_1" child="PV_1" width="1" color="a0a0a0" />
			<arcformat parent="Environment_Norm_1" child="PV_1" width="1" color="a0a0a0" />
			<arcformat parent="Information_Facilities__1" child="Bike_users_1" width="1" color="a0a0a0" />
			<arcformat parent="Perceived_Viability_1" child="Bike_users_1" width="1" color="a0a0a0" />
			<arcformat parent="Environment_Norm_1" child="Bike_users_1" width="1" color="a0a0a0" />
			<arcformat parent="PV_1" child="Electrictiy_demand_1" width="1" color="a0a0a0" />
			<arcformat parent="Information_Facilities__1" child="EV_1" width="1" color="a0a0a0" />
			<arcformat parent="Perceived_Viability_1" child="EV_1" width="1" color="a0a0a0" />
			<arcformat parent="Environment_Norm_1" child="EV_1" width="1" color="a0a0a0" />
			<arcformat parent="Bike_users_1" child="Sustainable_Mobility_1" width="1" color="a0a0a0" />
			<arcformat parent="EV_1" child="Sustainable_Mobility_1" width="1" color="a0a0a0" />
			<arcformat parent="Information_Facilities__1" child="Heat_Pump_1" width="1" color="a0a0a0" />
			<arcformat parent="Perceived_Viability_1" child="Heat_Pump_1" width="1" color="a0a0a0" />
			<arcformat parent="Perceived_Viability_1" child="District_Heating_1" width="1" color="a0a0a0" />
			<arcformat parent="Environment_Norm_1" child="District_Heating_1" width="1" color="a0a0a0" />
			<arcformat parent="Information_Facilities__1" child="District_Heating_1" width="1" color="a0a0a0" />
			<arcformat parent="Environment_Norm_1" child="Bio_Gas_1" width="1" color="a0a0a0" />
			<arcformat parent="Information_Facilities__1" child="Bio_Gas_1" width="1" color="a0a0a0" />
			<arcformat parent="Perceived_Viability_1" child="Bio_Gas_1" width="1" color="a0a0a0" />
			<arcformat parent="Heat_Pump_1" child="Sustainable_Heating_1" width="1" color="a0a0a0" />
			<arcformat parent="District_Heating_1" child="Sustainable_Heating_1" width="1" color="a0a0a0" />
			<arcformat parent="Bio_Gas_1" child="Sustainable_Heating_1" width="1" color="a0a0a0" />
			<arcformat parent="Electrictiy_demand_1" child="GHG_Emission_1" width="1" color="a0a0a0" />
			<arcformat parent="Sustainable_Mobility_1" child="GHG_Emission_1" width="1" color="a0a0a0" />
			<arcformat parent="Sustainable_Heating_1" child="GHG_Emission_1" width="1" color="a0a0a0" />
			<arcformat parent="GHG_Emission" child="GHG_Emission_1" width="3" color="a0a0a0" />
			<arcformat parent="GHG_Emission_1" child="GHG_Emission_2" width="3" color="a0a0a0" />
			<arcformat parent="Sustainable_Electricity" child="GHG_Emission_2" width="1" color="a0a0a0" />
			<arcformat parent="Sustainable_Mobility_2" child="GHG_Emission_2" width="1" color="a0a0a0" />
			<arcformat parent="Sustainable_Heating_2" child="GHG_Emission_2" width="1" color="a0a0a0" />
		</genie>
	</extensions>
</smile>
